Language model created by QuickLM on Sun Jun  7 09:43:47 EDT 2015
Copyright (c) 1996-2010 Carnegie Mellon University and Alexander I. Rudnicky

The model is in standard ARPA format, designed by Doug Paul while he was at MITRE.

The code that was used to produce this language model is available in Open Source.
Please visit http://www.speech.cs.cmu.edu/tools/ for more information

The (fixed) discount mass is 0.5. The backoffs are computed using the ratio method.
This model based on a corpus of 7 sentences and 13 words

\data\
ngram 1=13
ngram 2=18
ngram 3=13

\1-grams:
-0.8873 </s> -0.3010
-0.8873 <s> -0.2407
-1.7324 ਬੈਕਵਰਡ -0.2407
-1.7324 ਬ੍ਰੋਵ੍ਸ਼ਰ -0.2407
-1.7324 ਈਮੇਲ -0.2407
-1.7324 ਫਾਰ੍ਵਰ੍ਡ -0.2407
-1.7324 ਲਾਸ੍ਟ -0.2846
-1.7324 ਮ੍ਯੂਜਿਕ -0.2929
-1.7324 ਮ੍ਨਯੂ -0.2929
-1.7324 ਨੇਕ੍ਸ੍ਟ -0.2846
-1.4314 ਓਪਨ -0.2846
-1.7324 ਪਲੇਯਰ -0.2407
-1.4314 ਵਿਨਡਓ -0.2407

\2-grams:
-1.1461 <s> ਬੈਕਵਰਡ 0.0000
-1.1461 <s> ਫਾਰ੍ਵਰ੍ਡ 0.0000
-1.1461 <s> ਲਾਸ੍ਟ 0.0000
-1.1461 <s> ਮ੍ਨਯੂ 0.0000
-1.1461 <s> ਨੇਕ੍ਸ੍ਟ 0.0000
-0.8451 <s> ਓਪਨ 0.0000
-0.3010 ਬੈਕਵਰਡ </s> -0.3010
-0.3010 ਬ੍ਰੋਵ੍ਸ਼ਰ </s> -0.3010
-0.3010 ਈਮੇਲ </s> -0.3010
-0.3010 ਫਾਰ੍ਵਰ੍ਡ </s> -0.3010
-0.3010 ਲਾਸ੍ਟ ਵਿਨਡਓ 0.0000
-0.3010 ਮ੍ਯੂਜਿਕ ਪਲੇਯਰ 0.0000
-0.3010 ਮ੍ਨਯੂ ਈਮੇਲ 0.0000
-0.3010 ਨੇਕ੍ਸ੍ਟ ਵਿਨਡਓ 0.0000
-0.6021 ਓਪਨ ਬ੍ਰੋਵ੍ਸ਼ਰ 0.0000
-0.6021 ਓਪਨ ਮ੍ਯੂਜਿਕ 0.0000
-0.3010 ਪਲੇਯਰ </s> -0.3010
-0.3010 ਵਿਨਡਓ </s> -0.3010

\3-grams:
-0.3010 <s> ਬੈਕਵਰਡ </s>
-0.3010 <s> ਫਾਰ੍ਵਰ੍ਡ </s>
-0.3010 <s> ਲਾਸ੍ਟ ਵਿਨਡਓ
-0.3010 <s> ਮ੍ਨਯੂ ਈਮੇਲ
-0.3010 <s> ਨੇਕ੍ਸ੍ਟ ਵਿਨਡਓ
-0.6021 <s> ਓਪਨ ਬ੍ਰੋਵ੍ਸ਼ਰ
-0.6021 <s> ਓਪਨ ਮ੍ਯੂਜਿਕ
-0.3010 ਲਾਸ੍ਟ ਵਿਨਡਓ </s>
-0.3010 ਮ੍ਯੂਜਿਕ ਪਲੇਯਰ </s>
-0.3010 ਮ੍ਨਯੂ ਈਮੇਲ </s>
-0.3010 ਨੇਕ੍ਸ੍ਟ ਵਿਨਡਓ </s>
-0.3010 ਓਪਨ ਬ੍ਰੋਵ੍ਸ਼ਰ </s>
-0.3010 ਓਪਨ ਮ੍ਯੂਜਿਕ ਪਲੇਯਰ

\end\
