Language model created by QuickLM on Tue Jun  9 16:13:07 EDT 2015
Copyright (c) 1996-2010 Carnegie Mellon University and Alexander I. Rudnicky

The model is in standard ARPA format, designed by Doug Paul while he was at MITRE.

The code that was used to produce this language model is available in Open Source.
Please visit http://www.speech.cs.cmu.edu/tools/ for more information

The (fixed) discount mass is 0.5. The backoffs are computed using the ratio method.
This model based on a corpus of 6 sentences and 36 words

\data\
ngram 1=36
ngram 2=41
ngram 3=39

\1-grams:
-1.2304 </s> -0.3010
-1.2304 <s> -0.2747
-2.0086 ਆਉਂਦੀ -0.2968
-1.4065 ਐ -0.2747
-2.0086 ਕਰਦਾ -0.2968
-2.0086 ਕੇਹੀ -0.2837
-2.0086 ਖਿੱਲ -0.2924
-2.0086 ਗਈ -0.2968
-2.0086 ਗਏ -0.2968
-2.0086 ਗਿਆ -0.2968
-2.0086 ਜੋ -0.2968
-2.0086 ਟੁਕੜੇ -0.2924
-2.0086 ਟੁੱਟ -0.2968
-2.0086 ਦਿਲ -0.2924
-2.0086 ਦੀ -0.2968
-1.7076 ਦੇ -0.2747
-2.0086 ਦੇਹੀ -0.2837
-2.0086 ਪਾਕਿ -0.2837
-2.0086 ਪਿਆਰੇ, -0.2968
-2.0086 ਫੁੱਟ -0.2968
-1.7076 ਬਣ -0.2924
-2.0086 ਬਣੀ -0.2968
-2.0086 ਭੁੱਜ -0.2968
-2.0086 ਭੜਥਾ -0.2924
-2.0086 ਮੁਸੀਬਤ -0.2968
-2.0086 ਮੈਂ -0.2968
-2.0086 ਮੰਨ -0.2968
-2.0086 ਯਾਦ -0.2968
-2.0086 ਯਾਰ -0.2968
-2.0086 ਰੱਬ -0.2968
-2.0086 ਲਈ -0.2968
-2.0086 ਵਤਨ -0.2968
-2.0086 ਵਾਂਗੂੰ -0.2968
-2.0086 ਵਿਛੜੇ -0.2968
-2.0086 ਹਾਏ -0.2968
-2.0086 ਖ਼ਾਕ -0.2837

\2-grams:
-1.0792 <s> ਆਉਂਦੀ 0.0000
-1.0792 <s> ਟੁੱਟ 0.0000
-1.0792 <s> ਭੜਥਾ 0.0000
-1.0792 <s> ਮੰਨ 0.0000
-1.0792 <s> ਵਿਛੜੇ 0.0000
-1.0792 <s> ਹਾਏ 0.0000
-0.3010 ਆਉਂਦੀ ਯਾਦ 0.0000
-0.3010 ਐ </s> -0.3010
-0.3010 ਕਰਦਾ ਰੱਬ 0.0000
-0.3010 ਕੇਹੀ ਐ 0.0000
-0.3010 ਖਿੱਲ ਦੇ 0.0000
-0.3010 ਗਈ ਦੇਹੀ 0.0000
-0.3010 ਗਏ ਦਿਲ 0.0000
-0.3010 ਗਿਆ ਵਾਂਗੂੰ 0.0000
-0.3010 ਜੋ ਕਰਦਾ 0.0000
-0.3010 ਟੁਕੜੇ ਬਣ -0.1761
-0.3010 ਟੁੱਟ ਫੁੱਟ 0.0000
-0.3010 ਦਿਲ ਦੇ 0.0000
-0.3010 ਦੀ ਖ਼ਾਕ 0.0000
-0.3010 ਦੇ </s> -0.3010
-0.3010 ਦੇਹੀ ਐ 0.0000
-0.3010 ਪਾਕਿ ਐ 0.0000
-0.3010 ਪਿਆਰੇ, ਬਣੀ 0.0000
-0.3010 ਫੁੱਟ ਟੁਕੜੇ 0.0000
-0.6021 ਬਣ ਗਈ 0.0000
-0.6021 ਬਣ ਗਏ 0.0000
-0.3010 ਬਣੀ ਮੁਸੀਬਤ 0.0000
-0.3010 ਭੁੱਜ ਗਿਆ 0.0000
-0.3010 ਭੜਥਾ ਬਣ -0.1761
-0.3010 ਮੁਸੀਬਤ ਕੇਹੀ 0.0000
-0.3010 ਮੈਂ ਭੁੱਜ 0.0000
-0.3010 ਮੰਨ ਲਈ 0.0000
-0.3010 ਯਾਦ ਵਤਨ 0.0000
-0.3010 ਯਾਰ ਪਿਆਰੇ, 0.0000
-0.3010 ਰੱਬ ਪਾਕਿ 0.0000
-0.3010 ਲਈ ਜੋ 0.0000
-0.3010 ਵਤਨ ਦੀ 0.0000
-0.3010 ਵਾਂਗੂੰ ਖਿੱਲ 0.0000
-0.3010 ਵਿਛੜੇ ਯਾਰ 0.0000
-0.3010 ਹਾਏ ਮੈਂ 0.0000
-0.3010 ਖ਼ਾਕ ਐ 0.0000

\3-grams:
-0.3010 <s> ਆਉਂਦੀ ਯਾਦ
-0.3010 <s> ਟੁੱਟ ਫੁੱਟ
-0.3010 <s> ਭੜਥਾ ਬਣ
-0.3010 <s> ਮੰਨ ਲਈ
-0.3010 <s> ਵਿਛੜੇ ਯਾਰ
-0.3010 <s> ਹਾਏ ਮੈਂ
-0.3010 ਆਉਂਦੀ ਯਾਦ ਵਤਨ
-0.3010 ਕਰਦਾ ਰੱਬ ਪਾਕਿ
-0.3010 ਕੇਹੀ ਐ </s>
-0.3010 ਖਿੱਲ ਦੇ </s>
-0.3010 ਗਈ ਦੇਹੀ ਐ
-0.3010 ਗਏ ਦਿਲ ਦੇ
-0.3010 ਗਿਆ ਵਾਂਗੂੰ ਖਿੱਲ
-0.3010 ਜੋ ਕਰਦਾ ਰੱਬ
-0.3010 ਟੁਕੜੇ ਬਣ ਗਏ
-0.3010 ਟੁੱਟ ਫੁੱਟ ਟੁਕੜੇ
-0.3010 ਦਿਲ ਦੇ </s>
-0.3010 ਦੀ ਖ਼ਾਕ ਐ
-0.3010 ਦੇਹੀ ਐ </s>
-0.3010 ਪਾਕਿ ਐ </s>
-0.3010 ਪਿਆਰੇ, ਬਣੀ ਮੁਸੀਬਤ
-0.3010 ਫੁੱਟ ਟੁਕੜੇ ਬਣ
-0.3010 ਬਣ ਗਈ ਦੇਹੀ
-0.3010 ਬਣ ਗਏ ਦਿਲ
-0.3010 ਬਣੀ ਮੁਸੀਬਤ ਕੇਹੀ
-0.3010 ਭੁੱਜ ਗਿਆ ਵਾਂਗੂੰ
-0.3010 ਭੜਥਾ ਬਣ ਗਈ
-0.3010 ਮੁਸੀਬਤ ਕੇਹੀ ਐ
-0.3010 ਮੈਂ ਭੁੱਜ ਗਿਆ
-0.3010 ਮੰਨ ਲਈ ਜੋ
-0.3010 ਯਾਦ ਵਤਨ ਦੀ
-0.3010 ਯਾਰ ਪਿਆਰੇ, ਬਣੀ
-0.3010 ਰੱਬ ਪਾਕਿ ਐ
-0.3010 ਲਈ ਜੋ ਕਰਦਾ
-0.3010 ਵਤਨ ਦੀ ਖ਼ਾਕ
-0.3010 ਵਾਂਗੂੰ ਖਿੱਲ ਦੇ
-0.3010 ਵਿਛੜੇ ਯਾਰ ਪਿਆਰੇ,
-0.3010 ਹਾਏ ਮੈਂ ਭੁੱਜ
-0.3010 ਖ਼ਾਕ ਐ </s>

\end\
